<?xml version="1.0"?>
<opencv_storage>
<cascade>
  <stageType>BOOST</stageType>
  <featureType>HAAR</featureType>
  <height>24</height>
  <width>24</width>
  <stageParams>
    <boostType>GAB</boostType>
    <minHitRate>9.9500000476837158e-01</minHitRate>
    <maxFalseAlarm>5.0000000000000000e-01</maxFalseAlarm>
    <weightTrimRate>9.4999998807907104e-01</weightTrimRate>
    <maxDepth>1</maxDepth>
    <maxWeakCount>100</maxWeakCount></stageParams>
  <featureParams>
    <maxCatCount>0</maxCatCount>
    <featSize>1</featSize>
    <mode>BASIC</mode></featureParams>
  <stageNum>11</stageNum>
  <stages>
    <!-- stage 0 -->
    <_>
      <maxWeakCount>2</maxWeakCount>
      <stageThreshold>-2.3600581288337708e-01</stageThreshold>
      <weakClassifiers>
        <_>
          <internalNodes>
            0 -1 8 -9.7138574346899986e-04</internalNodes>
          <leafValues>
            6.3636362552642822e-01 -9.3750000000000000e-01</leafValues></_>
        <_>
          <internalNodes>
            0 -1 0 1.9523426890373230e-01</internalNodes>
          <leafValues>
            -8.7236946821212769e-01 8.8221836090087891e-01</leafValues></_></weakClassifiers></_>
    <!-- stage 1 -->
    <_>
      <maxWeakCount>2</maxWeakCount>
      <stageThreshold>3.8526069838553667e-03</stageThreshold>
      <weakClassifiers>
        <_>
          <internalNodes>
            0 -1 11 6.4759505912661552e-03</internalNodes>
          <leafValues>
            -8.8571429252624512e-01 1.</leafValues></_>
        <_>
          <internalNodes>
            0 -1 3 2.5141488760709763e-02</internalNodes>
          <leafValues>
            -8.9438754320144653e-01 8.8956689834594727e-01</leafValues></_></weakClassifiers></_>
    <!-- stage 2 -->
    <_>
      <maxWeakCount>2</maxWeakCount>
      <stageThreshold>-2.3600581288337708e-01</stageThreshold>
      <weakClassifiers>
        <_>
          <internalNodes>
            0 -1 12 -8.4138706326484680e-02</internalNodes>
          <leafValues>
            6.3636362552642822e-01 -9.3750000000000000e-01</leafValues></_>
        <_>
          <internalNodes>
            0 -1 18 -2.2894488647580147e-03</internalNodes>
          <leafValues>
            8.8221836090087891e-01 -8.7236946821212769e-01</leafValues></_></weakClassifiers></_>
    <!-- stage 3 -->
    <_>
      <maxWeakCount>2</maxWeakCount>
      <stageThreshold>1.1428571492433548e-01</stageThreshold>
      <weakClassifiers>
        <_>
          <internalNodes>
            0 -1 5 -4.8104813322424889e-03</internalNodes>
          <leafValues>
            1. -8.8571429252624512e-01</leafValues></_>
        <_>
          <internalNodes>
            0 -1 10 1.5839025378227234e-02</internalNodes>
          <leafValues>
            -8.0485612154006958e-01 1.</leafValues></_></weakClassifiers></_>
    <!-- stage 4 -->
    <_>
      <maxWeakCount>2</maxWeakCount>
      <stageThreshold>2.1621622145175934e-01</stageThreshold>
      <weakClassifiers>
        <_>
          <internalNodes>
            0 -1 4 4.8090159893035889e-02</internalNodes>
          <leafValues>
            -7.8378379344940186e-01 1.</leafValues></_>
        <_>
          <internalNodes>
            0 -1 17 4.7145728021860123e-02</internalNodes>
          <leafValues>
            -7.8244429826736450e-01 1.</leafValues></_></weakClassifiers></_>
    <!-- stage 5 -->
    <_>
      <maxWeakCount>2</maxWeakCount>
      <stageThreshold>4.6700023114681244e-02</stageThreshold>
      <weakClassifiers>
        <_>
          <internalNodes>
            0 -1 1 2.0539647340774536e-01</internalNodes>
          <leafValues>
            -7.8378379344940186e-01 1.</leafValues></_>
        <_>
          <internalNodes>
            0 -1 20 1.0026776231825352e-02</internalNodes>
          <leafValues>
            -8.5536068677902222e-01 8.3048379421234131e-01</leafValues></_></weakClassifiers></_>
    <!-- stage 6 -->
    <_>
      <maxWeakCount>2</maxWeakCount>
      <stageThreshold>-1.9590300321578979e-01</stageThreshold>
      <weakClassifiers>
        <_>
          <internalNodes>
            0 -1 9 8.0836154520511627e-03</internalNodes>
          <leafValues>
            -8.2857143878936768e-01 7.5000000000000000e-01</leafValues></_>
        <_>
          <internalNodes>
            0 -1 2 9.4979200512170792e-03</internalNodes>
          <leafValues>
            -9.3430012464523315e-01 6.3266843557357788e-01</leafValues></_></weakClassifiers></_>
    <!-- stage 7 -->
    <_>
      <maxWeakCount>2</maxWeakCount>
      <stageThreshold>9.5277175307273865e-02</stageThreshold>
      <weakClassifiers>
        <_>
          <internalNodes>
            0 -1 7 -3.0497498810291290e-02</internalNodes>
          <leafValues>
            1. -7.3684209585189819e-01</leafValues></_>
        <_>
          <internalNodes>
            0 -1 15 -1.4259444549679756e-02</internalNodes>
          <leafValues>
            8.3211928606033325e-01 -7.7940523624420166e-01</leafValues></_></weakClassifiers></_>
    <!-- stage 8 -->
    <_>
      <maxWeakCount>2</maxWeakCount>
      <stageThreshold>-8.6789675056934357e-02</stageThreshold>
      <weakClassifiers>
        <_>
          <internalNodes>
            0 -1 6 -5.2301441319286823e-03</internalNodes>
          <leafValues>
            1. -7.8378379344940186e-01</leafValues></_>
        <_>
          <internalNodes>
            0 -1 16 5.6688766926527023e-04</internalNodes>
          <leafValues>
            6.9699412584304810e-01 -8.9473617076873779e-01</leafValues></_></weakClassifiers></_>
    <!-- stage 9 -->
    <_>
      <maxWeakCount>2</maxWeakCount>
      <stageThreshold>1.7791523039340973e-01</stageThreshold>
      <weakClassifiers>
        <_>
          <internalNodes>
            0 -1 13 6.2730787321925163e-03</internalNodes>
          <leafValues>
            -7.8378379344940186e-01 1.</leafValues></_>
        <_>
          <internalNodes>
            0 -1 14 -7.8924044966697693e-02</internalNodes>
          <leafValues>
            1. -8.2208478450775146e-01</leafValues></_></weakClassifiers></_>
    <!-- stage 10 -->
    <_>
      <maxWeakCount>2</maxWeakCount>
      <stageThreshold>-2.3291946947574615e-01</stageThreshold>
      <weakClassifiers>
        <_>
          <internalNodes>
            0 -1 21 -4.9244332330999896e-05</internalNodes>
          <leafValues>
            6.3636362552642822e-01 -9.3750000000000000e-01</leafValues></_>
        <_>
          <internalNodes>
            0 -1 19 -5.7706702500581741e-03</internalNodes>
          <leafValues>
            7.7753770351409912e-01 -8.6928313970565796e-01</leafValues></_></weakClassifiers></_></stages>
  <features>
    <_>
      <rects>
        <_>
          0 6 21 10 -1.</_>
        <_>
          7 6 7 10 3.</_></rects>
      <tilted>0</tilted></_>
    <_>
      <rects>
        <_>
          0 9 24 7 -1.</_>
        <_>
          8 9 8 7 3.</_></rects>
      <tilted>0</tilted></_>
    <_>
      <rects>
        <_>
          0 23 18 1 -1.</_>
        <_>
          6 23 6 1 3.</_></rects>
      <tilted>0</tilted></_>
    <_>
      <rects>
        <_>
          2 10 15 2 -1.</_>
        <_>
          7 10 5 2 3.</_></rects>
      <tilted>0</tilted></_>
    <_>
      <rects>
        <_>
          4 7 12 4 -1.</_>
        <_>
          8 7 4 4 3.</_></rects>
      <tilted>0</tilted></_>
    <_>
      <rects>
        <_>
          4 10 3 9 -1.</_>
        <_>
          4 13 3 3 3.</_></rects>
      <tilted>0</tilted></_>
    <_>
      <rects>
        <_>
          4 12 6 3 -1.</_>
        <_>
          4 13 6 1 3.</_></rects>
      <tilted>0</tilted></_>
    <_>
      <rects>
        <_>
          4 12 20 1 -1.</_>
        <_>
          14 12 10 1 2.</_></rects>
      <tilted>0</tilted></_>
    <_>
      <rects>
        <_>
          4 15 16 3 -1.</_>
        <_>
          4 16 16 1 3.</_></rects>
      <tilted>0</tilted></_>
    <_>
      <rects>
        <_>
          8 12 5 12 -1.</_>
        <_>
          8 18 5 6 2.</_></rects>
      <tilted>0</tilted></_>
    <_>
      <rects>
        <_>
          9 9 8 9 -1.</_>
        <_>
          9 12 8 3 3.</_></rects>
      <tilted>0</tilted></_>
    <_>
      <rects>
        <_>
          10 4 5 4 -1.</_>
        <_>
          10 6 5 2 2.</_></rects>
      <tilted>0</tilted></_>
    <_>
      <rects>
        <_>
          10 11 12 13 -1.</_>
        <_>
          16 11 6 13 2.</_></rects>
      <tilted>0</tilted></_>
    <_>
      <rects>
        <_>
          11 11 9 2 -1.</_>
        <_>
          14 11 3 2 3.</_></rects>
      <tilted>0</tilted></_>
    <_>
      <rects>
        <_>
          11 18 12 6 -1.</_>
        <_>
          17 18 6 6 2.</_></rects>
      <tilted>0</tilted></_>
    <_>
      <rects>
        <_>
          13 1 6 4 -1.</_>
        <_>
          13 3 6 2 2.</_></rects>
      <tilted>0</tilted></_>
    <_>
      <rects>
        <_>
          13 7 3 6 -1.</_>
        <_>
          13 10 3 3 2.</_></rects>
      <tilted>0</tilted></_>
    <_>
      <rects>
        <_>
          13 10 9 12 -1.</_>
        <_>
          13 14 9 4 3.</_></rects>
      <tilted>0</tilted></_>
    <_>
      <rects>
        <_>
          13 12 3 6 -1.</_>
        <_>
          14 12 1 6 3.</_></rects>
      <tilted>0</tilted></_>
    <_>
      <rects>
        <_>
          13 13 4 10 -1.</_>
        <_>
          13 13 2 5 2.</_>
        <_>
          15 18 2 5 2.</_></rects>
      <tilted>0</tilted></_>
    <_>
      <rects>
        <_>
          16 6 2 12 -1.</_>
        <_>
          16 10 2 4 3.</_></rects>
      <tilted>0</tilted></_>
    <_>
      <rects>
        <_>
          18 14 3 1 -1.</_>
        <_>
          19 14 1 1 3.</_></rects>
      <tilted>0</tilted></_></features></cascade>
</opencv_storage>
