<?xml version="1.0"?>
<opencv_storage>
<cascade>
  <stageType>BOOST</stageType>
  <featureType>HAAR</featureType>
  <height>24</height>
  <width>24</width>
  <stageParams>
    <boostType>GAB</boostType>
    <minHitRate>9.9500000476837158e-01</minHitRate>
    <maxFalseAlarm>5.0000000000000000e-01</maxFalseAlarm>
    <weightTrimRate>9.4999998807907104e-01</weightTrimRate>
    <maxDepth>1</maxDepth>
    <maxWeakCount>100</maxWeakCount></stageParams>
  <featureParams>
    <maxCatCount>0</maxCatCount>
    <featSize>1</featSize>
    <mode>BASIC</mode></featureParams>
  <stageNum>15</stageNum>
  <stages>
    <!-- stage 0 -->
    <_>
      <maxWeakCount>3</maxWeakCount>
      <stageThreshold>-4.7135987877845764e-01</stageThreshold>
      <weakClassifiers>
        <_>
          <internalNodes>
            0 -1 40 1.6867667436599731e-02</internalNodes>
          <leafValues>
            -7.4736839532852173e-01 5.6000000238418579e-01</leafValues></_>
        <_>
          <internalNodes>
            0 -1 46 -2.9255773406475782e-03</internalNodes>
          <leafValues>
            8.9106059074401855e-01 -4.2693302035331726e-01</leafValues></_>
        <_>
          <internalNodes>
            0 -1 29 -8.8577659334987402e-04</internalNodes>
          <leafValues>
            7.0294159650802612e-01 -4.3361967802047729e-01</leafValues></_></weakClassifiers></_>
    <!-- stage 1 -->
    <_>
      <maxWeakCount>4</maxWeakCount>
      <stageThreshold>-6.3016760349273682e-01</stageThreshold>
      <weakClassifiers>
        <_>
          <internalNodes>
            0 -1 9 -3.9434749633073807e-02</internalNodes>
          <leafValues>
            6.8421053886413574e-01 -6.4485979080200195e-01</leafValues></_>
        <_>
          <internalNodes>
            0 -1 28 -3.2959599047899246e-02</internalNodes>
          <leafValues>
            8.9714062213897705e-01 -4.1569763422012329e-01</leafValues></_>
        <_>
          <internalNodes>
            0 -1 12 8.4002159535884857e-02</internalNodes>
          <leafValues>
            -4.9466136097908020e-01 8.2251948118209839e-01</leafValues></_>
        <_>
          <internalNodes>
            0 -1 37 3.1118649989366531e-02</internalNodes>
          <leafValues>
            -2.5312370061874390e-01 9.2505121231079102e-01</leafValues></_></weakClassifiers></_>
    <!-- stage 2 -->
    <_>
      <maxWeakCount>3</maxWeakCount>
      <stageThreshold>-6.6664737462997437e-01</stageThreshold>
      <weakClassifiers>
        <_>
          <internalNodes>
            0 -1 21 1.0535119508858770e-04</internalNodes>
          <leafValues>
            -6.9565218687057495e-01 3.9622640609741211e-01</leafValues></_>
        <_>
          <internalNodes>
            0 -1 23 7.7019394666422158e-05</internalNodes>
          <leafValues>
            -5.9178137779235840e-01 5.1313966512680054e-01</leafValues></_>
        <_>
          <internalNodes>
            0 -1 36 7.6839067041873932e-03</internalNodes>
          <leafValues>
            -4.7109240293502808e-01 7.5072497129440308e-01</leafValues></_></weakClassifiers></_>
    <!-- stage 3 -->
    <_>
      <maxWeakCount>4</maxWeakCount>
      <stageThreshold>-2.5429478287696838e-01</stageThreshold>
      <weakClassifiers>
        <_>
          <internalNodes>
            0 -1 47 -2.5122737497440539e-05</internalNodes>
          <leafValues>
            3.2203391194343567e-01 -7.2093021869659424e-01</leafValues></_>
        <_>
          <internalNodes>
            0 -1 14 1.1808499039034359e-05</internalNodes>
          <leafValues>
            -5.9412711858749390e-01 5.1485341787338257e-01</leafValues></_>
        <_>
          <internalNodes>
            0 -1 45 7.0766691351309419e-05</internalNodes>
          <leafValues>
            -5.4008293151855469e-01 4.6072649955749512e-01</leafValues></_>
        <_>
          <internalNodes>
            0 -1 42 3.2765654032118618e-04</internalNodes>
          <leafValues>
            -4.4292804598808289e-01 6.4323073625564575e-01</leafValues></_></weakClassifiers></_>
    <!-- stage 4 -->
    <_>
      <maxWeakCount>3</maxWeakCount>
      <stageThreshold>-7.7921742200851440e-01</stageThreshold>
      <weakClassifiers>
        <_>
          <internalNodes>
            0 -1 2 1.3287979527376592e-05</internalNodes>
          <leafValues>
            -6.9767439365386963e-01 2.8813558816909790e-01</leafValues></_>
        <_>
          <internalNodes>
            0 -1 22 -1.7474838386988267e-05</internalNodes>
          <leafValues>
            4.9471098184585571e-01 -5.3965437412261963e-01</leafValues></_>
        <_>
          <internalNodes>
            0 -1 18 7.5144489528611302e-05</internalNodes>
          <leafValues>
            -5.4630953073501587e-01 4.5811137557029724e-01</leafValues></_></weakClassifiers></_>
    <!-- stage 5 -->
    <_>
      <maxWeakCount>3</maxWeakCount>
      <stageThreshold>-2.1924424171447754e-01</stageThreshold>
      <weakClassifiers>
        <_>
          <internalNodes>
            0 -1 48 2.0008184015750885e-02</internalNodes>
          <leafValues>
            -5.4545456171035767e-01 4.8571428656578064e-01</leafValues></_>
        <_>
          <internalNodes>
            0 -1 10 5.2001834847033024e-03</internalNodes>
          <leafValues>
            1.7826521396636963e-01 -9.4807422161102295e-01</leafValues></_>
        <_>
          <internalNodes>
            0 -1 51 5.1431590691208839e-03</internalNodes>
          <leafValues>
            2.4311567842960358e-01 -8.3584016561508179e-01</leafValues></_></weakClassifiers></_>
    <!-- stage 6 -->
    <_>
      <maxWeakCount>6</maxWeakCount>
      <stageThreshold>-8.2801365852355957e-01</stageThreshold>
      <weakClassifiers>
        <_>
          <internalNodes>
            0 -1 44 -7.4934720993041992e-02</internalNodes>
          <leafValues>
            8.0952382087707520e-01 -4.8387095332145691e-01</leafValues></_>
        <_>
          <internalNodes>
            0 -1 55 -1.7081592886825092e-05</internalNodes>
          <leafValues>
            3.8613867759704590e-01 -6.2458032369613647e-01</leafValues></_>
        <_>
          <internalNodes>
            0 -1 32 -1.5726399142295122e-03</internalNodes>
          <leafValues>
            6.4918738603591919e-01 -3.7929281592369080e-01</leafValues></_>
        <_>
          <internalNodes>
            0 -1 41 -1.9257667008787394e-03</internalNodes>
          <leafValues>
            4.6995529532432556e-01 -5.9070992469787598e-01</leafValues></_>
        <_>
          <internalNodes>
            0 -1 15 -5.0261232536286116e-04</internalNodes>
          <leafValues>
            -7.8817850351333618e-01 3.0205601453781128e-01</leafValues></_>
        <_>
          <internalNodes>
            0 -1 39 -9.1842934489250183e-03</internalNodes>
          <leafValues>
            9.1153699159622192e-01 -2.8325617313385010e-01</leafValues></_></weakClassifiers></_>
    <!-- stage 7 -->
    <_>
      <maxWeakCount>4</maxWeakCount>
      <stageThreshold>-7.8167575597763062e-01</stageThreshold>
      <weakClassifiers>
        <_>
          <internalNodes>
            0 -1 34 -1.8866888713091612e-03</internalNodes>
          <leafValues>
            4.3478259444236755e-01 -6.3636362552642822e-01</leafValues></_>
        <_>
          <internalNodes>
            0 -1 20 2.9784585349261761e-03</internalNodes>
          <leafValues>
            -4.5242241024971008e-01 6.6698670387268066e-01</leafValues></_>
        <_>
          <internalNodes>
            0 -1 13 1.3520289957523346e-01</internalNodes>
          <leafValues>
            -3.5869404673576355e-01 8.2654249668121338e-01</leafValues></_>
        <_>
          <internalNodes>
            0 -1 43 -3.3094498794525862e-03</internalNodes>
          <leafValues>
            6.6580432653427124e-01 -3.9201846718788147e-01</leafValues></_></weakClassifiers></_>
    <!-- stage 8 -->
    <_>
      <maxWeakCount>4</maxWeakCount>
      <stageThreshold>-8.5012930631637573e-01</stageThreshold>
      <weakClassifiers>
        <_>
          <internalNodes>
            0 -1 6 1.0859663784503937e-01</internalNodes>
          <leafValues>
            -4.5736435055732727e-01 1.</leafValues></_>
        <_>
          <internalNodes>
            0 -1 58 6.7520292941480875e-04</internalNodes>
          <leafValues>
            2.5374969840049744e-01 -1.</leafValues></_>
        <_>
          <internalNodes>
            0 -1 50 8.8252313435077667e-04</internalNodes>
          <leafValues>
            2.6758247613906860e-01 -8.8520550727844238e-01</leafValues></_>
        <_>
          <internalNodes>
            0 -1 52 -9.2347245663404465e-04</internalNodes>
          <leafValues>
            -9.1139525175094604e-01 2.3869088292121887e-01</leafValues></_></weakClassifiers></_>
    <!-- stage 9 -->
    <_>
      <maxWeakCount>5</maxWeakCount>
      <stageThreshold>-5.9424328804016113e-01</stageThreshold>
      <weakClassifiers>
        <_>
          <internalNodes>
            0 -1 57 -9.8032061941921711e-04</internalNodes>
          <leafValues>
            -7.9661017656326294e-01 4.6511627733707428e-02</leafValues></_>
        <_>
          <internalNodes>
            0 -1 7 4.3806130997836590e-04</internalNodes>
          <leafValues>
            1.7414666712284088e-01 -8.7491863965988159e-01</leafValues></_>
        <_>
          <internalNodes>
            0 -1 17 -2.7968473732471466e-03</internalNodes>
          <leafValues>
            6.1285477876663208e-01 -3.9220350980758667e-01</leafValues></_>
        <_>
          <internalNodes>
            0 -1 4 5.6876996532082558e-03</internalNodes>
          <leafValues>
            2.3800377547740936e-01 -8.8326716423034668e-01</leafValues></_>
        <_>
          <internalNodes>
            0 -1 38 3.1325523741543293e-04</internalNodes>
          <leafValues>
            -5.2313619852066040e-01 4.6056914329528809e-01</leafValues></_></weakClassifiers></_>
    <!-- stage 10 -->
    <_>
      <maxWeakCount>3</maxWeakCount>
      <stageThreshold>-3.5068973898887634e-01</stageThreshold>
      <weakClassifiers>
        <_>
          <internalNodes>
            0 -1 54 -1.0647432645782828e-03</internalNodes>
          <leafValues>
            -6.5517240762710571e-01 2.4137930572032928e-01</leafValues></_>
        <_>
          <internalNodes>
            0 -1 11 -2.0124486181885004e-03</internalNodes>
          <leafValues>
            -8.6144661903381348e-01 2.3792396485805511e-01</leafValues></_>
        <_>
          <internalNodes>
            0 -1 25 3.2916304189711809e-04</internalNodes>
          <leafValues>
            2.6937755942344666e-01 -7.8118157386779785e-01</leafValues></_></weakClassifiers></_>
    <!-- stage 11 -->
    <_>
      <maxWeakCount>4</maxWeakCount>
      <stageThreshold>-4.6329900622367859e-01</stageThreshold>
      <weakClassifiers>
        <_>
          <internalNodes>
            0 -1 3 1.9257828593254089e-01</internalNodes>
          <leafValues>
            -5.2212387323379517e-01 5.0000000000000000e-01</leafValues></_>
        <_>
          <internalNodes>
            0 -1 35 -1.0309442877769470e-03</internalNodes>
          <leafValues>
            3.9099130034446716e-01 -5.4203838109970093e-01</leafValues></_>
        <_>
          <internalNodes>
            0 -1 31 4.8278154281433672e-05</internalNodes>
          <leafValues>
            -4.4292455911636353e-01 4.8220551013946533e-01</leafValues></_>
        <_>
          <internalNodes>
            0 -1 8 3.0454387888312340e-04</internalNodes>
          <leafValues>
            2.3925299942493439e-01 -9.1136574745178223e-01</leafValues></_></weakClassifiers></_>
    <!-- stage 12 -->
    <_>
      <maxWeakCount>4</maxWeakCount>
      <stageThreshold>-1.2121200561523438e+00</stageThreshold>
      <weakClassifiers>
        <_>
          <internalNodes>
            0 -1 16 4.3527320027351379e-02</internalNodes>
          <leafValues>
            -4.9180328845977783e-01 7.3913043737411499e-01</leafValues></_>
        <_>
          <internalNodes>
            0 -1 53 5.5404694285243750e-04</internalNodes>
          <leafValues>
            3.9334285259246826e-01 -6.0961169004440308e-01</leafValues></_>
        <_>
          <internalNodes>
            0 -1 27 1.6098187188617885e-05</internalNodes>
          <leafValues>
            -6.1618053913116455e-01 3.7813833355903625e-01</leafValues></_>
        <_>
          <internalNodes>
            0 -1 49 -2.9934226768091321e-04</internalNodes>
          <leafValues>
            4.8300394415855408e-01 -4.9747905135154724e-01</leafValues></_></weakClassifiers></_>
    <!-- stage 13 -->
    <_>
      <maxWeakCount>4</maxWeakCount>
      <stageThreshold>-6.4198392629623413e-01</stageThreshold>
      <weakClassifiers>
        <_>
          <internalNodes>
            0 -1 24 1.7579331994056702e-02</internalNodes>
          <leafValues>
            -4.9180328845977783e-01 7.3913043737411499e-01</leafValues></_>
        <_>
          <internalNodes>
            0 -1 1 -3.5460188519209623e-04</internalNodes>
          <leafValues>
            -9.2560553550720215e-01 2.2879180312156677e-01</leafValues></_>
        <_>
          <internalNodes>
            0 -1 0 3.3935811370611191e-04</internalNodes>
          <leafValues>
            2.0475730299949646e-01 -8.7382143735885620e-01</leafValues></_>
        <_>
          <internalNodes>
            0 -1 56 -3.7393969250842929e-05</internalNodes>
          <leafValues>
            4.9484899640083313e-01 -4.7326481342315674e-01</leafValues></_></weakClassifiers></_>
    <!-- stage 14 -->
    <_>
      <maxWeakCount>5</maxWeakCount>
      <stageThreshold>-1.0186560153961182e+00</stageThreshold>
      <weakClassifiers>
        <_>
          <internalNodes>
            0 -1 33 1.3816020451486111e-02</internalNodes>
          <leafValues>
            -4.9180328845977783e-01 7.3913043737411499e-01</leafValues></_>
        <_>
          <internalNodes>
            0 -1 30 -1.7924072453752160e-03</internalNodes>
          <leafValues>
            5.8742040395736694e-01 -4.3591475486755371e-01</leafValues></_>
        <_>
          <internalNodes>
            0 -1 26 2.1261692047119141e-02</internalNodes>
          <leafValues>
            -3.0776295065879822e-01 7.6829624176025391e-01</leafValues></_>
        <_>
          <internalNodes>
            0 -1 5 -1.1472076585050672e-04</internalNodes>
          <leafValues>
            -6.0077178478240967e-01 3.9568611979484558e-01</leafValues></_>
        <_>
          <internalNodes>
            0 -1 19 8.6896838620305061e-03</internalNodes>
          <leafValues>
            -2.5846242904663086e-01 9.6083384752273560e-01</leafValues></_></weakClassifiers></_></stages>
  <features>
    <_>
      <rects>
        <_>
          0 0 2 2 -1.</_>
        <_>
          0 0 1 1 2.</_>
        <_>
          1 1 1 1 2.</_></rects>
      <tilted>0</tilted></_>
    <_>
      <rects>
        <_>
          0 1 1 2 -1.</_>
        <_>
          0 2 1 1 2.</_></rects>
      <tilted>0</tilted></_>
    <_>
      <rects>
        <_>
          0 5 2 1 -1.</_>
        <_>
          1 5 1 1 2.</_></rects>
      <tilted>0</tilted></_>
    <_>
      <rects>
        <_>
          0 7 24 9 -1.</_>
        <_>
          8 7 8 9 3.</_></rects>
      <tilted>0</tilted></_>
    <_>
      <rects>
        <_>
          0 9 1 12 -1.</_>
        <_>
          0 13 1 4 3.</_></rects>
      <tilted>0</tilted></_>
    <_>
      <rects>
        <_>
          0 10 1 3 -1.</_>
        <_>
          0 11 1 1 3.</_></rects>
      <tilted>0</tilted></_>
    <_>
      <rects>
        <_>
          0 11 24 5 -1.</_>
        <_>
          8 11 8 5 3.</_></rects>
      <tilted>0</tilted></_>
    <_>
      <rects>
        <_>
          0 17 1 3 -1.</_>
        <_>
          0 18 1 1 3.</_></rects>
      <tilted>0</tilted></_>
    <_>
      <rects>
        <_>
          1 1 1 2 -1.</_>
        <_>
          1 2 1 1 2.</_></rects>
      <tilted>0</tilted></_>
    <_>
      <rects>
        <_>
          1 7 13 10 -1.</_>
        <_>
          1 12 13 5 2.</_></rects>
      <tilted>0</tilted></_>
    <_>
      <rects>
        <_>
          1 10 4 6 -1.</_>
        <_>
          1 12 4 2 3.</_></rects>
      <tilted>0</tilted></_>
    <_>
      <rects>
        <_>
          1 21 6 1 -1.</_>
        <_>
          4 21 3 1 2.</_></rects>
      <tilted>0</tilted></_>
    <_>
      <rects>
        <_>
          2 7 16 10 -1.</_>
        <_>
          10 7 8 10 2.</_></rects>
      <tilted>0</tilted></_>
    <_>
      <rects>
        <_>
          3 0 15 15 -1.</_>
        <_>
          8 0 5 15 3.</_></rects>
      <tilted>0</tilted></_>
    <_>
      <rects>
        <_>
          3 3 1 2 -1.</_>
        <_>
          3 4 1 1 2.</_></rects>
      <tilted>0</tilted></_>
    <_>
      <rects>
        <_>
          3 14 2 4 -1.</_>
        <_>
          3 14 1 2 2.</_>
        <_>
          4 16 1 2 2.</_></rects>
      <tilted>0</tilted></_>
    <_>
      <rects>
        <_>
          4 0 9 11 -1.</_>
        <_>
          7 0 3 11 3.</_></rects>
      <tilted>0</tilted></_>
    <_>
      <rects>
        <_>
          4 0 18 3 -1.</_>
        <_>
          4 1 18 1 3.</_></rects>
      <tilted>0</tilted></_>
    <_>
      <rects>
        <_>
          4 3 2 8 -1.</_>
        <_>
          4 3 1 4 2.</_>
        <_>
          5 7 1 4 2.</_></rects>
      <tilted>0</tilted></_>
    <_>
      <rects>
        <_>
          4 3 3 21 -1.</_>
        <_>
          5 3 1 21 3.</_></rects>
      <tilted>0</tilted></_>
    <_>
      <rects>
        <_>
          4 10 6 4 -1.</_>
        <_>
          4 10 3 2 2.</_>
        <_>
          7 12 3 2 2.</_></rects>
      <tilted>0</tilted></_>
    <_>
      <rects>
        <_>
          4 12 2 1 -1.</_>
        <_>
          5 12 1 1 2.</_></rects>
      <tilted>0</tilted></_>
    <_>
      <rects>
        <_>
          4 19 2 2 -1.</_>
        <_>
          4 20 2 1 2.</_></rects>
      <tilted>0</tilted></_>
    <_>
      <rects>
        <_>
          5 5 6 2 -1.</_>
        <_>
          5 5 3 1 2.</_>
        <_>
          8 6 3 1 2.</_></rects>
      <tilted>0</tilted></_>
    <_>
      <rects>
        <_>
          5 13 9 3 -1.</_>
        <_>
          8 13 3 3 3.</_></rects>
      <tilted>0</tilted></_>
    <_>
      <rects>
        <_>
          5 14 1 2 -1.</_>
        <_>
          5 15 1 1 2.</_></rects>
      <tilted>0</tilted></_>
    <_>
      <rects>
        <_>
          5 18 18 6 -1.</_>
        <_>
          5 20 18 2 3.</_></rects>
      <tilted>0</tilted></_>
    <_>
      <rects>
        <_>
          6 0 1 6 -1.</_>
        <_>
          6 2 1 2 3.</_></rects>
      <tilted>0</tilted></_>
    <_>
      <rects>
        <_>
          6 18 18 6 -1.</_>
        <_>
          6 21 18 3 2.</_></rects>
      <tilted>0</tilted></_>
    <_>
      <rects>
        <_>
          7 3 8 2 -1.</_>
        <_>
          7 3 4 1 2.</_>
        <_>
          11 4 4 1 2.</_></rects>
      <tilted>0</tilted></_>
    <_>
      <rects>
        <_>
          7 3 13 3 -1.</_>
        <_>
          7 4 13 1 3.</_></rects>
      <tilted>0</tilted></_>
    <_>
      <rects>
        <_>
          7 11 1 4 -1.</_>
        <_>
          7 13 1 2 2.</_></rects>
      <tilted>0</tilted></_>
    <_>
      <rects>
        <_>
          7 11 3 2 -1.</_>
        <_>
          8 11 1 2 3.</_></rects>
      <tilted>0</tilted></_>
    <_>
      <rects>
        <_>
          8 0 10 4 -1.</_>
        <_>
          8 2 10 2 2.</_></rects>
      <tilted>0</tilted></_>
    <_>
      <rects>
        <_>
          8 12 3 7 -1.</_>
        <_>
          9 12 1 7 3.</_></rects>
      <tilted>0</tilted></_>
    <_>
      <rects>
        <_>
          8 14 3 5 -1.</_>
        <_>
          9 14 1 5 3.</_></rects>
      <tilted>0</tilted></_>
    <_>
      <rects>
        <_>
          8 17 9 4 -1.</_>
        <_>
          11 17 3 4 3.</_></rects>
      <tilted>0</tilted></_>
    <_>
      <rects>
        <_>
          9 4 7 9 -1.</_>
        <_>
          9 7 7 3 3.</_></rects>
      <tilted>0</tilted></_>
    <_>
      <rects>
        <_>
          9 11 3 7 -1.</_>
        <_>
          10 11 1 7 3.</_></rects>
      <tilted>0</tilted></_>
    <_>
      <rects>
        <_>
          9 13 9 1 -1.</_>
        <_>
          12 13 3 1 3.</_></rects>
      <tilted>0</tilted></_>
    <_>
      <rects>
        <_>
          10 4 4 12 -1.</_>
        <_>
          10 8 4 4 3.</_></rects>
      <tilted>0</tilted></_>
    <_>
      <rects>
        <_>
          10 6 1 10 -1.</_>
        <_>
          10 11 1 5 2.</_></rects>
      <tilted>0</tilted></_>
    <_>
      <rects>
        <_>
          10 14 5 2 -1.</_>
        <_>
          10 15 5 1 2.</_></rects>
      <tilted>0</tilted></_>
    <_>
      <rects>
        <_>
          10 17 9 3 -1.</_>
        <_>
          13 17 3 3 3.</_></rects>
      <tilted>0</tilted></_>
    <_>
      <rects>
        <_>
          11 0 12 12 -1.</_>
        <_>
          15 0 4 12 3.</_></rects>
      <tilted>0</tilted></_>
    <_>
      <rects>
        <_>
          11 9 2 6 -1.</_>
        <_>
          12 9 1 6 2.</_></rects>
      <tilted>0</tilted></_>
    <_>
      <rects>
        <_>
          11 11 5 2 -1.</_>
        <_>
          11 12 5 1 2.</_></rects>
      <tilted>0</tilted></_>
    <_>
      <rects>
        <_>
          11 20 1 2 -1.</_>
        <_>
          11 21 1 1 2.</_></rects>
      <tilted>0</tilted></_>
    <_>
      <rects>
        <_>
          12 5 4 9 -1.</_>
        <_>
          12 8 4 3 3.</_></rects>
      <tilted>0</tilted></_>
    <_>
      <rects>
        <_>
          12 15 2 6 -1.</_>
        <_>
          12 15 1 3 2.</_>
        <_>
          13 18 1 3 2.</_></rects>
      <tilted>0</tilted></_>
    <_>
      <rects>
        <_>
          19 12 3 3 -1.</_>
        <_>
          19 13 3 1 3.</_></rects>
      <tilted>0</tilted></_>
    <_>
      <rects>
        <_>
          20 0 2 6 -1.</_>
        <_>
          20 3 2 3 2.</_></rects>
      <tilted>0</tilted></_>
    <_>
      <rects>
        <_>
          20 2 4 2 -1.</_>
        <_>
          20 2 2 1 2.</_>
        <_>
          22 3 2 1 2.</_></rects>
      <tilted>0</tilted></_>
    <_>
      <rects>
        <_>
          21 1 3 9 -1.</_>
        <_>
          22 1 1 9 3.</_></rects>
      <tilted>0</tilted></_>
    <_>
      <rects>
        <_>
          21 7 2 16 -1.</_>
        <_>
          21 7 1 8 2.</_>
        <_>
          22 15 1 8 2.</_></rects>
      <tilted>0</tilted></_>
    <_>
      <rects>
        <_>
          21 14 2 8 -1.</_>
        <_>
          22 14 1 8 2.</_></rects>
      <tilted>0</tilted></_>
    <_>
      <rects>
        <_>
          22 2 2 4 -1.</_>
        <_>
          23 2 1 4 2.</_></rects>
      <tilted>0</tilted></_>
    <_>
      <rects>
        <_>
          22 15 1 6 -1.</_>
        <_>
          22 17 1 2 3.</_></rects>
      <tilted>0</tilted></_>
    <_>
      <rects>
        <_>
          22 15 2 2 -1.</_>
        <_>
          22 16 2 1 2.</_></rects>
      <tilted>0</tilted></_></features></cascade>
</opencv_storage>
